0.0873526 -0.306451 -0.1407 -0.415245 0.526714 -0.484255 0.0574898 0.159246 0.13607 -0.423943 -0.431178 -0.133692 0.0686738 0.106158 0.00378099 -0.221519 -0.230182 -0.40465 -0.336661 -0.0420138 0.296776 -0.450524 0.326861 0.357265 0.151215 -0.477354 0.136016 0.347086 0.0836859 0.369163 0.540518 0.1539 -0.398398 0.865092 -0.188503 0.34953 -0.278255 -0.224243 -0.246165 -0.450928 0.682364 -0.313009 -0.347317 -0.349934 -0.359625 0.239353 -0.300611 0.442102 0.406917 0.155104 0.164583 0.340051 -0.0680863 0.130323 -0.0521988 0.107453 -0.166407 -0.362093 0.526179 0.270206 0.281984 -0.23096 0.355998 0.177888 -0.0590608 0.33192 0.0764712 -0.464275 -0.132545 0.904513 0.0909861 0.443665 -0.454802 -0.294041 -0.0551595 -0.357179 0.52866 -0.0862421 0.361445 0.419925 0.421926 -0.363219 -0.34691 0.618188 0.283606 -0.164614 0.522987 0.0842739 -0.163235 0.155442 -0.24763 0.303136 -0.441631 -0.431499 -0.12797 0.200551 0.41449 -0.350378 -0.196116 -0.0441375 -0.213806 -0.319257 0.204815 -0.00342337 0.300221 0.128276 0.354198 -0.258468 -0.41062 0.469397 0.190189 -0.0393279 0.345811 0.213474 0.167212 0.137691 -0.0753812 0.48393 -0.274635 0.368702 0.527377 -0.26449 0.039656 0.201576 -0.479076 0.465214 -0.205745 -0.368349 0.321006 0.00496886 0.267801 0.606926 -0.396295 0.328541 0.0429285 0.142837 -0.254559 -0.296959 -0.274722 0.326005 0.503916 0.876255 0.210913 -0.374157 -0.49818 0.2241 0.575618 -0.264302 0.0820149 0.45699 -0.0106489 0.25441 0.42755 0.228343 -0.101948 -0.181736 0.476777 -0.013093 0.642703 -0.478967 0.0976306 0.272724 -0.0551714 0.182161 0.270719 0.470456 -0.354511 0.0187412 0.460905 -0.160675 0.378007 0.504868 -0.206125 0.260773 -0.0462801 -0.223455 0.385058 1.00789 -0.0398947 0.479249 -0.0374569 -0.124162 -0.143634 -0.72562 -0.265084 0.0367882 0.148974 -0.121292 -0.24951 0.500406 0.29246 0.111313 -0.168675 -0.342666 -0.111401 0.275277 -0.00466595 -0.0322168 0.28912 -0.17466 -0.190969 0.521128 -0.304068 -0.0796295 0.290815 -0.105771 0.274411 -0.293109 0.108161 -0.459936 -0.0210514 0.0933538 0.504994 0.612726 0.16635 -0.35575 0.44957 0.60456 0.597063 0.00489494 -0.0281957 -0.357319 -0.326956 0.491662 -0.00545647 0.2862 -0.0465712 0.495402 0.322302 0.0942707 0.201262 0.280453 -0.129109 0.221538 0.454681 -0.315232 -0.254862 0.073572 0.367718 0.519674 -0.323141 -0.466522 -0.195473 0.228902 -0.338008 0.444838 0.570678 -0.13149 0.011364 0.678549 0.155581 -0.0558271 -0.430581 0.0150564 0.444396 0.19219 0.67047 -0.37334 -0.00240489 0.393582 0.260145 -0.0759556 -0.20903 -0.23493 0.230496 -0.23242 0.159442 0.154263 0.0830702 0.259792 -0.234683 -0.477656 -0.278741 -0.056589 0.254602 0.285483 0.317014 -0.426285 0.0777016 -0.308363 -0.0966884 0.0938298 -0.298405 0.0352291 0.157556 0.674031 -0.431516 -0.198966 -0.0629198 0.401622 0.444494 -0.00620747 -0.032214 0.251307 0.125986 -0.223077 -0.174723 0.174274 -0.358389 0.551519 0.507819 -0.263869 0.176096 -0.309927 -0.178182 -0.421589 0.487132 0.259479 0.282725 -0.367405 0.245604 0.745143 0.0330964 0.0751138 -0.424767 -0.224876 0.0876758 -0.113372 -0.395032 -0.375837 -0.379502 0.879702 0.380535 -0.0894401 -0.373281 0.245095 0.3543 -0.516048 -0.117548 -0.343621 0.174972 -0.134647 -0.0491223 0.487677 -0.210398 0.579617 0.511271 0.0703397 -0.321765 -0.468694 -0.178424 0.364649 0.346202 -0.383526 0.43765 0.288855 -0.180105 0.324992 -0.314108 -0.488042 -0.0962431 -0.355202 -0.189292 0.188082 -0.0284308 -0.432004 0.487198 1.00413 0.167535 0.178332 
-0.174629 0.661749 0.668088 -0.0184088 0.546742 -0.0283119 -0.0490978 0.14958 0.122519 0.341425 0.429218 0.568004 0.0903637 0.601591 0.0634218 -0.179215 0.733239 -0.00121513 0.441529 0.0424531 0.637693 -0.199524 0.0876888 -0.146442 0.460622 0.428326 0.0117856 0.632858 -0.205116 0.549168 0.0718927 0.392835 0.417372 -0.0775827 0.61797 -0.157859 0.663503 0.617533 0.194126 0.503736 0.533587 0.511487 0.0584318 -0.143993 0.298811 0.10387 0.747525 0.617595 0.596804 0.0926975 0.4225 0.0941199 -0.0649194 0.0981815 0.0863338 -0.191631 -0.186787 0.249308 -0.163223 0.381933 -0.0788291 -0.210238 -0.244522 0.0799247 0.311598 0.121082 -0.106495 0.670414 0.410251 -0.167547 0.0310763 0.366255 0.568379 0.543859 0.250881 -0.063299 0.498156 0.170163 0.521688 0.244638 0.628848 -0.195611 -0.0256759 0.0318761 0.613308 0.398524 0.030966 0.582079 0.273414 -0.168217 0.247354 -0.0429103 0.687692 0.107417 0.738852 -0.139869 0.12299 -0.0826491 -0.0500651 0.0376508 
0.438686 0.462527 0.4834 -0.106774 0.00359156 -0.314219 -0.13672 0.717063 0.326021 0.294491 -0.153818 0.0327436 0.523928 0.621749 -0.0579928 -0.0877856 0.208276 0.26442 0.464401 -0.185624 0.233213 0.704774 0.38852 0.343119 -0.121424 0.266539 -0.242465 0.600236 0.531097 0.323204 0.517303 0.505978 0.279649 0.306934 0.254389 0.381598 0.344346 0.362922 0.584803 0.601736 0.158235 0.511616 -0.20283 0.264193 0.185545 0.41581 0.548396 -0.125693 0.317517 -0.171756 0.31052 0.184954 0.169519 0.0822943 0.440269 -0.234314 0.123569 -0.00203844 0.305771 0.546437 0.633628 0.263674 -0.0805122 0.318349 0.392528 0.552982 -0.0111579 -0.000109338 0.0054022 0.318006 
