0.222044 -0.259069 0.0167832 0.204554 0.499931 -0.419232 0.0675582 0.212421 -0.0521773 -0.289412 0.170297 0.381286 -0.262213 -0.163787 -0.37398 -0.441799 -0.251801 0.286016 0.268642 -0.474127 -0.380266 -0.126521 0.201204 -0.347412 -0.124055 0.0352252 -0.432352 0.356084 -0.498063 0.140013 -0.212527 -0.341632 0.196885 0.0686896 -0.0978667 -0.0959508 -0.283489 0.437239 0.041951 0.182635 -0.110501 -0.257586 0.454849 0.235785 0.49117 0.0748015 -0.475024 0.270772 0.361696 -0.0936066 0.198647 -0.0121494 -0.308599 0.0471835 0.462043 0.219274 -0.152696 0.467788 -0.362008 0.330786 -0.126456 -0.45978 0.0823696 -0.199791 0.0306896 0.430644 0.160086 0.303703 0.120345 0.206457 0.0905348 0.364275 -0.124657 0.313789 -0.0574938 -0.0846434 -0.315033 0.373893 0.122189 -0.387706 -0.0221187 0.411373 -0.0914911 0.0985248 -0.399582 0.348 -0.0903733 0.225583 -0.492374 -0.435006 0.187377 0.105293 -0.480669 -0.327657 0.359041 -0.0520497 -0.395176 -0.135903 -0.177346 -0.376186 0.114515 -0.442166 0.278492 -0.390575 0.474972 -0.242409 -0.0522533 -0.186673 0.496288 -0.258277 -0.093666 -0.303449 -0.235312 -0.244736 -0.0328553 -0.247229 0.125902 0.24019 0.0118365 -0.0435837 0.0804615 -0.0369245 -0.347794 0.405498 0.0577461 0.411638 -0.174554 0.206334 -0.0863575 -0.341815 -0.0436515 -0.14412 -0.128416 -0.100287 0.0573864 0.451578 0.101746 0.205669 -0.371639 0.165292 0.00246297 -0.373062 0.329673 -0.490222 0.0928881 0.449111 0.363617 0.0994683 -0.00736144 -0.460642 -0.0815337 -0.125909 0.177135 0.199841 -0.218295 -0.393646 -0.0444289 -0.484896 0.208694 0.125773 0.167728 0.26297 -0.271224 -0.367521 0.234254 -0.223953 0.354271 0.220013 0.00987685 0.257811 -0.476551 -0.347146 -0.182516 0.468307 0.475059 -0.184468 -0.0337226 -0.236686 -0.164901 -0.0363005 -0.383063 -0.272027 -0.0303104 0.100179 0.309929 -0.476273 0.423704 0.0819003 0.344428 -0.363682 0.286614 0.430632 -0.270574 0.402011 -0.242165 -0.1666 -0.305022 0.38713 -0.269527 -0.398278 -0.457744 -0.455119 -0.452138 -0.422475 -0.418316 0.337378 -0.398137 -0.449464 0.0621968 -0.142491 0.363553 -0.27214 0.371965 0.0963331 -0.46131 -0.292903 -0.469956 -0.123249 0.469603 0.39572 -0.267373 0.14741 -0.141548 -0.0437942 -0.11854 -0.128463 -0.255389 0.156167 0.121348 0.212132 0.109939 0.163288 0.44163 0.272026 -0.178716 0.244273 0.0647433 0.114584 0.236477 0.365716 -0.449481 0.154901 -0.462933 -0.46165 0.323821 -0.220171 0.140447 0.452207 -0.239692 0.0660357 0.312948 -0.445998 -0.0792713 -0.398584 0.394621 -0.285936 0.298418 -0.0382835 -0.463792 0.274524 0.0835357 0.272459 0.460352 0.110047 -0.114252 0.119354 -0.291882 0.438096 -0.167543 0.184748 -0.499643 -0.415185 -0.410803 -0.136027 -0.0313711 0.4594 -0.00290415 -0.365235 -0.375993 -0.152299 0.171117 -0.0277589 -0.346638 0.263224 -0.091698 0.201003 -0.0389886 -0.188106 0.104877 0.457918 0.0840389 0.272702 0.350594 -0.361937 0.23283 -0.335333 0.206567 0.155613 -0.0140377 -0.102226 0.271145 -0.342155 0.0942283 0.00877201 -0.19656 -0.0114528 0.344204 0.268051 -0.496456 0.309797 -0.325984 -0.152186 0.123194 -0.409962 -0.245167 -0.069439 0.191261 -0.10898 -0.361689 0.180632 -0.00716538 0.0330674 0.224932 0.414372 0.173461 -0.156072 0.168066 0.36214 -0.00592639 -0.131458 -0.0534019 0.0516975 -0.411735 0.198401 -0.139168 -0.235876 0.0677784 0.181611 0.0667475 -0.211477 -0.402545 -0.358713 -0.254905 -0.0352018 0.29072 0.0811064 -0.345122 0.422957 0.244619 0.324014 -0.324463 0.325982 0.291468 -0.224437 0.459295 -0.493396 0.0114193 0.206714 0.197284 0.482009 
-0.426749 0.198176 0.490076 0.257252 -0.0954055 -0.163254 0.404901 -0.278483 0.462117 -0.125653 -0.446444 0.430306 -0.199524 -0.401266 -0.376456 0.461279 0.302127 0.424089 -0.478824 0.0112892 -0.0727969 0.062011 0.308409 0.489061 -0.251532 0.0243068 0.356526 0.378634 -0.00599122 0.461338 -0.328974 0.347519 0.266977 -0.271919 0.301462 -0.336237 0.442132 -0.10252 -0.479849 0.322613 0.198368 0.0618843 0.113059 0.233802 -0.435356 0.4469 -0.343248 -0.166437 -0.138098 -0.290228 0.33276 -0.249346 -0.44685 -0.0388709 -0.337595 -0.420964 -0.447173 -0.120002 -0.214117 0.20624 -0.396749 0.311559 -0.49432 0.355937 0.195377 0.217632 0.348041 -0.222069 0.00934817 -0.0772516 -0.136528 0.180621 0.303853 0.442226 -0.456358 -0.48919 0.138339 -0.384086 0.459819 0.167038 -0.23953 -0.425214 0.452794 -0.161984 0.4417 0.387534 -0.251025 0.0275464 -0.485519 0.242803 0.440224 0.309953 0.162791 0.228657 -0.221706 0.0239107 -0.109568 0.478255 0.0666831 -0.132838 
-0.385751 0.112606 0.142351 0.400786 0.420916 -0.231794 -0.447028 -0.164742 0.00873191 -0.186933 0.360081 0.234745 0.349237 -0.127524 0.36967 0.294578 0.373698 0.0387014 -0.00248942 0.212568 0.030721 -0.12509 -0.442889 0.224814 0.429527 0.336047 0.037222 0.353458 -0.0571724 -0.295661 0.480404 -0.338228 0.143928 -0.282393 0.205733 -0.303078 -0.0385516 0.165808 -0.297287 -0.173323 -0.0089926 -0.134675 0.361363 0.104767 -0.239275 0.282174 -0.0945098 -0.0321034 -0.497027 0.323006 -0.043406 -0.16127 0.214514 -0.133138 0.426982 -0.180106 0.0602601 0.418306 -0.0900208 -0.123515 -0.395251 0.343517 0.207341 0.207481 -0.363918 -0.0824337 -0.441182 0.229716 -0.251066 0.231703 
