0.427128 -0.470945 -0.41456 -0.376298 -0.319275 0.066174 -0.008629 -0.121025 -0.298532 -0.150793 0.132043 -0.171468 -0.00538759 -0.224472 0.416362 -0.439369 0.0633749 -0.267122 0.46439 0.132102 -0.38849 -0.212394 -0.10702 -0.44321 -0.00178954 -0.259931 0.493612 -0.4428 0.359089 0.218653 -0.327346 -0.478672 -0.354205 -0.0786238 -0.258855 0.250942 0.477949 -0.109216 -0.333797 -0.416124 0.137527 -0.0252996 0.0869616 -0.019838 0.179138 -0.16146 0.489076 0.231044 -0.094796 -0.437611 0.186252 0.442069 0.0110948 -0.00995021 0.342023 0.0957512 0.256236 -0.121678 -0.0336141 -0.28205 0.429022 -0.0939298 -0.469087 -0.249781 -0.473945 -0.272522 -0.321347 -0.321356 0.232127 -0.0279985 0.438205 0.439979 0.0176797 -0.0597014 0.480199 0.223668 -0.0986653 -0.103216 -0.44742 -0.421891 0.445791 0.120473 0.243323 0.392617 -0.293223 0.125512 0.388585 0.442969 0.324129 -0.087204 -0.018392 -0.319717 0.463572 -0.455281 0.224139 -0.321676 -0.269548 0.319848 -0.445368 0.387937 -0.00523991 -0.0655103 -0.201904 0.247043 -0.322119 0.336266 -0.271006 0.220917 0.115206 -0.468019 0.23368 -0.0752032 -0.485323 -0.103956 -0.155435 -0.485671 0.0519615 0.336187 -0.336316 0.401384 0.423628 0.0198787 -0.493606 0.164557 0.0201488 0.115193 0.120247 -0.4146 0.0262874 -0.388844 -0.155514 -0.406771 -0.367888 0.470878 -0.179832 0.222528 -0.235069 -0.0122526 0.242069 0.422615 -0.36084 -0.164589 0.0701805 0.23074 -0.214426 0.419473 0.35199 0.221097 0.465685 -0.138116 -0.478514 0.470529 -0.205654 0.322732 0.11621 0.442629 -0.453871 -0.1852 0.251984 -0.40963 -0.440012 -0.273231 0.336204 0.220709 0.0543631 -0.306261 0.274643 -0.040361 -0.383937 -0.0290064 0.0997296 0.457352 -0.248619 0.170809 0.0294 0.101546 -0.14667 0.486076 0.287674 0.13281 0.174321 -0.300669 0.407994 -0.217679 -0.215069 -0.455979 0.163031 0.0564092 -0.353625 0.324961 0.270324 -0.430784 0.111111 -0.383611 -0.37187 0.026676 -0.476442 -0.488069 0.269081 -0.0702141 0.118792 0.427806 0.0725492 0.00945092 -0.195919 -0.162088 0.460131 -0.17651 0.261963 0.273689 0.0956561 0.355191 -0.00764161 -0.371004 -0.0512268 0.188934 -0.378489 0.427196 0.130014 0.348428 -0.253659 -0.361069 -0.29947 0.136069 -0.343663 0.340282 0.120396 0.179907 0.340612 0.313142 -0.455401 0.485836 0.359422 0.365989 -0.250672 0.000249606 0.263235 -0.335314 -0.222087 -0.0119969 0.453943 0.345628 -0.0358744 0.277861 0.0784224 -0.247573 0.116047 -0.168568 -0.0610325 -0.0816718 0.196485 0.154385 0.176622 0.0767007 0.074571 -0.301726 0.10728 0.168656 0.0705361 0.393546 -0.0295855 -0.341748 0.291988 0.248664 -0.184198 -0.219643 -0.0243669 0.169098 0.35098 0.197128 0.0488769 -0.402029 -0.294812 -0.178431 -0.150251 -0.00534005 0.158604 -0.385348 0.445065 0.0887821 -0.388669 0.244237 0.221433 -0.013326 -0.445198 -0.0362073 -0.398888 -0.381393 -0.206259 0.182513 0.201281 0.244355 0.495568 -0.485854 -0.166054 -0.263143 0.40859 0.00120609 -0.0988999 0.0413567 -0.206344 -0.114182 -0.150775 0.0804314 -0.0508115 -0.0952163 -0.314212 -0.489522 0.157017 0.353518 -0.277699 0.293776 -0.058198 0.218732 -0.467083 0.187533 0.315023 -0.093734 0.158911 -0.20805 -0.283547 -0.222527 0.344873 0.154338 -0.356276 0.359712 0.346498 0.224373 -0.438903 0.445486 -0.274453 -0.112611 0.0852978 -0.317066 0.154799 0.339505 0.440681 0.0635338 0.352133 0.348349 -0.275841 0.105885 -0.146485 0.0699592 0.477343 -0.114514 -0.161692 -0.473911 0.211084 -0.00844918 0.388979 -0.447648 0.349871 -0.0141183 0.00805326 0.323899 -0.0486801 0.296734 0.166768 -0.27891 
0.206739 -0.200162 -0.0712929 -0.290146 -0.179844 -0.282999 -0.168371 -0.117699 -0.23739 -0.431022 0.38738 -0.159069 0.363228 -0.0711182 -0.336448 -0.262936 0.0579629 0.0197361 -0.182127 -0.378722 -0.383609 -0.481735 -0.00447006 0.0368447 -0.164529 -0.1522 0.2327 -0.108939 -0.0760278 -0.450436 -0.314864 -0.373346 0.234496 -0.359437 0.0343471 -0.298772 -0.114203 -0.104121 -0.112925 -0.245944 -0.383373 -0.282229 -0.346176 0.160445 -0.054012 -0.451739 0.110947 -0.461174 -0.272389 0.138071 0.378064 0.130389 0.213399 -0.127023 -0.328891 0.0527514 -0.00744901 0.143226 0.0821299 -0.28397 0.186013 0.373459 -0.0479285 -0.147903 -0.09507 0.0255191 -0.376159 0.330307 0.313214 -0.0131169 0.205264 -0.133157 0.03109 0.042873 -0.0318681 -0.288349 0.15515 -0.318913 -0.243377 -0.0209163 -0.00407693 0.392346 -0.0848995 0.376587 -0.407636 0.308943 0.00257868 -0.00423556 -0.420914 -0.478613 -0.258834 -0.153187 0.134329 0.159811 -0.0394949 0.453746 0.140344 -0.248717 -0.472944 -0.127938 
0.332758 -0.0616082 0.0065604 0.173337 0.130065 0.442148 0.330783 0.297823 -0.261817 0.0153498 -0.324709 0.164762 0.464605 0.439763 0.376235 -0.268753 0.127854 0.107832 0.0580559 0.0930196 -0.445081 -0.272018 0.339515 0.120854 0.149197 -0.30286 -0.291616 -0.337837 0.315222 0.219442 0.443135 0.178198 0.217337 -0.0587459 -0.111791 0.0394783 -0.0777928 0.0369845 0.217956 -0.27087 0.292032 -0.488805 -0.364779 0.366197 -0.00373733 0.0364534 0.162893 0.248516 0.319714 -0.430161 -0.287486 -0.168669 -0.180481 -0.434691 0.280361 -0.455404 -0.381999 0.202019 -0.2171 0.41684 0.335141 -0.122044 -0.464191 -0.01473 0.0680528 0.213438 0.292034 0.223523 0.0776317 -0.158358 
