0.260223 -0.140662 0.0995091 0.452977 0.49225 0.3821 -0.488458 0.403783 -0.113274 -0.449194 0.0054079 0.450148 0.0149321 0.479238 0.184302 -0.335749 0.488568 0.279692 -0.28231 -0.399436 -0.0795151 0.0493957 -0.136015 -0.213117 0.465132 0.303143 0.225902 -0.424943 0.317379 0.148975 0.223297 0.44377 -0.0440974 0.143636 0.321635 0.199946 -0.430585 0.0347329 0.236263 -0.00543651 0.481932 0.0851993 -0.0674848 0.445104 -0.333716 0.159413 -0.252531 -0.103253 0.574519 0.42426 0.164227 0.187094 0.379493 -0.0415348 -0.110744 -0.265476 -0.131671 0.33533 -0.205725 0.168176 0.0678146 -0.278043 0.216248 -0.351366 0.159548 0.111288 -0.218531 -0.0534459 0.220079 -0.0102317 0.512632 0.199642 -0.271188 0.741417 0.232872 -0.36847 -0.16167 0.441432 0.218595 0.446783 0.0542326 0.132624 -0.236946 0.585336 0.327165 0.292352 0.501847 0.108384 -0.451016 0.320929 -0.363294 0.0874502 -0.0199941 0.13775 -0.126463 -0.125319 -0.188831 -0.301634 -0.459 0.208052 0.443301 0.266552 -0.406185 0.390211 0.436786 0.160317 -0.0818044 -0.485569 0.178831 0.312033 -0.12583 0.4266 0.13916 -0.474893 0.254947 -0.022793 0.443309 0.369242 0.0730874 0.380026 0.544488 -0.331194 0.316983 -0.0512693 0.190451 -0.0305245 0.431147 0.211397 -0.0090832 0.40817 -0.239125 0.331932 -0.184493 0.0533505 -0.442625 0.30435 -0.282799 0.2501 0.123636 -0.349006 0.217659 0.404092 -0.184872 -0.220002 0.0502495 -0.00791637 0.763471 0.551646 0.507867 0.370368 0.140478 0.359226 -0.479088 -0.195757 0.364414 0.589359 -0.091974 -0.370519 0.184184 0.213614 0.417741 -0.00200026 -0.0115615 0.280912 -0.475786 0.424607 -0.125674 0.440181 0.314599 0.128805 -0.153303 0.130355 0.415375 0.430849 0.0228077 -0.309492 -0.415166 0.195453 -0.457449 0.481248 -0.478446 0.696599 0.136737 0.0861588 0.222249 0.483148 -0.219881 -0.00573222 -0.244362 0.0704359 0.300058 0.455519 0.333387 -0.13248 -0.169902 0.153525 -0.368621 -0.343683 0.158689 0.339858 0.46318 -0.0762857 0.0864562 0.340047 0.303751 0.186637 0.0206496 -0.0919539 -0.181313 0.50675 0.462653 0.311083 0.159319 -0.155127 -0.121447 -0.443076 -0.354546 -0.132893 0.388034 0.213352 0.419432 0.482087 0.0760833 0.036117 0.285923 0.395457 -0.02112 0.53692 -0.186936 -0.256903 0.27366 0.185985 0.143886 0.0426487 -0.271815 -0.143911 0.0771886 0.489994 -0.0673254 0.0240586 0.209418 0.0755299 -0.364352 0.343877 -0.0455714 0.153895 0.0997108 -0.427377 -0.298373 -0.414883 0.25007 -0.451822 -0.24174 -0.145857 0.556314 0.389408 0.131341 0.480387 0.0795338 -0.306229 0.464294 0.225304 0.130103 0.164987 -0.0163783 0.00975469 0.50561 -0.261247 -0.224584 0.51611 0.383334 -0.356594 0.271009 -0.25312 0.303346 -0.274836 0.380879 -0.230283 -0.122816 -0.00592687 -0.329004 0.458969 0.479841 0.27089 -0.142504 0.428297 0.147438 0.157441 -0.393817 0.254282 0.558771 -0.0995882 0.352548 0.319508 0.262196 0.48868 -0.116851 0.047847 -0.448764 0.214092 0.0519161 -0.276889 0.246465 -0.307974 0.33558 0.452331 0.172738 0.340453 0.307733 -0.391544 0.0935565 0.248116 0.119769 -0.443191 -0.0136633 -0.212266 -0.192155 0.212923 0.401508 -0.16781 -0.016029 -0.116594 0.122925 0.314758 -0.493642 0.818788 0.472203 0.00675874 -0.195758 0.0553557 0.196078 0.432851 -0.159235 -0.16831 0.214837 0.211705 0.312254 0.51873 0.699709 0.477972 -0.190535 0.265398 -0.299816 -0.326468 0.183177 -0.277204 0.145477 0.0141177 0.132816 0.147921 0.49096 0.425593 0.0206584 -0.147836 -0.447718 0.297403 -0.455006 -0.363346 -0.251402 0.139034 
-0.0745752 0.434655 0.651292 -0.163687 0.550388 0.78145 0.508481 0.718254 0.775635 0.603694 -0.188295 0.1868 -0.147558 0.235932 -0.0911139 0.668861 0.391937 -0.0774714 -0.166797 0.641829 0.650403 0.408241 -0.157296 0.395755 0.189255 -0.144741 0.241626 0.277686 0.292289 -0.169648 0.414184 0.339792 0.707604 0.0299527 0.6488 0.495833 -0.181303 -0.184484 0.479612 0.318966 0.368224 0.147925 0.422486 0.576826 0.470457 -0.12132 0.0863683 -0.0239275 -0.0370232 -0.031581 -0.1413 0.741978 0.587457 -0.0683483 0.491486 0.340105 0.6069 0.0148517 0.0514804 0.456922 -0.168809 0.51274 0.0391902 0.0192209 0.651724 0.165484 0.0292913 0.328734 0.468122 -0.0451963 0.56486 0.406022 0.377847 0.619758 0.225843 0.318294 0.702665 0.319422 0.473814 0.459894 0.294037 0.485738 0.0347938 -0.0274986 0.546569 0.501142 -0.106472 0.242302 0.0806627 0.202247 0.58571 -0.175122 0.185269 0.184142 -0.17232 0.195337 -0.0321969 0.411863 -0.0325773 0.775582 
0.900136 -0.195958 0.685838 0.247594 0.551871 -0.054257 -0.170471 0.719928 0.381317 -0.228845 0.333598 0.334106 0.21372 0.71587 0.109491 0.434984 -0.155266 0.179166 0.662278 0.354328 0.471498 0.612823 0.376205 -0.0556639 -0.129 0.683238 -0.139851 0.150023 0.15246 0.21251 0.817323 0.659818 -0.0368102 0.29318 -0.114767 0.61809 0.050405 0.617144 0.0825612 0.137114 0.130187 0.549764 0.5599 0.595466 0.163656 0.570727 -0.100252 0.432348 0.252054 0.671188 0.44273 0.230226 0.31175 -0.121359 0.616365 0.843722 0.748822 0.555794 0.582377 0.560256 0.419439 -0.237957 -0.177298 0.525112 0.291385 0.248276 0.545563 0.382178 0.217804 0.746871 
