0.0400068 0.177575 0.41179 0.346455 -0.350054 -0.201645 0.224461 -0.0059817 -0.453997 -0.381782 -0.49801 0.166437 -0.475485 0.0806704 0.420762 -0.494106 -0.35768 0.0624258 0.425751 -0.372575 -0.0715572 0.37439 0.22037 -0.306908 -0.318279 -0.116122 -0.0678646 -0.364169 -0.154531 -0.240869 -0.344249 -0.232872 -0.329585 0.150238 -0.265519 -0.176192 0.0179259 -0.0276143 -0.282808 0.310274 -0.275476 -0.225917 0.271695 -0.453388 0.0896049 -0.367376 0.426376 0.20728 0.0650706 -0.388418 0.480697 0.0753996 -0.208227 -0.371407 0.223793 -0.0859884 -0.187487 -0.235164 0.288834 0.252911 0.377004 0.0804578 -0.337212 -0.38205 -0.327249 0.377241 0.0431937 -0.292187 0.262181 0.00460419 0.264187 0.0325891 0.409451 -0.264682 0.0590811 0.337289 -0.330521 -0.369599 0.138117 0.409891 -0.4963 0.276236 -0.25759 -0.35584 0.177234 -0.433443 -0.368764 -0.325242 0.232128 0.217466 0.175839 -0.393151 -0.0946343 -0.424301 0.294472 0.41391 0.155216 0.40851 -0.4607 -0.248581 0.160054 0.315504 -0.0147658 0.0769882 -0.209307 0.352199 -0.0930763 -0.156711 -0.333731 -0.409598 0.125085 0.0093452 0.248327 0.437204 -0.365076 0.0768622 0.30999 -0.369427 0.103959 0.350868 0.26595 -0.276144 -0.377057 -0.249639 0.24785 -0.0905287 -0.212377 -0.331031 -0.385718 -0.0611181 -0.101087 0.181622 -0.215094 0.00736547 -0.231036 -0.165025 -0.122028 -0.0071592 -0.479057 0.392238 0.363153 -0.284458 -0.176411 -0.121461 -0.0383064 -0.464671 0.222661 -0.089404 -0.0781288 0.306806 -0.124354 0.081783 -0.454318 -0.102175 0.0548109 -0.487534 0.343487 -0.458717 -0.129616 0.171947 -0.208199 -0.0945791 0.498944 0.419855 0.379545 0.348428 0.264348 0.240319 0.0544333 0.413771 0.488184 -0.341587 0.227058 0.257935 -0.302679 0.401976 -0.365503 -0.34161 0.256273 0.170825 0.440191 0.279191 0.420075 -0.0342041 0.275452 0.483286 -0.395882 0.357028 -0.451714 -0.218642 -0.421325 0.269355 -0.371049 -0.324711 -0.303682 -0.354474 -0.268778 -0.211696 -0.490157 0.226939 0.205095 0.154492 0.188144 0.422704 -0.487296 -0.359903 -0.382979 -0.227396 0.0441183 0.299574 -0.228104 -0.0294095 0.464148 0.316211 0.303638 -0.29783 0.0872812 0.148943 -0.0155201 -0.22734 -0.146283 0.455941 0.393802 0.410222 -0.303273 0.400863 0.0594748 -0.265306 -0.257665 0.496947 -0.136236 -0.10289 0.49262 -0.39112 0.205406 -0.121331 -0.22623 0.0162139 -0.118854 0.127019 0.14331 0.396618 -0.289233 -0.46256 0.257599 -0.0149062 0.267756 -0.13985 -0.143857 0.202252 -0.043668 0.366123 0.14146 -0.10075 -0.252042 0.438375 0.08152 0.0548425 0.309187 0.207958 -0.464742 0.278578 0.357636 -0.0582856 0.120887 -0.471735 -1.41141e-05 0.123105 -0.237328 -0.167561 0.329959 -0.139733 0.139161 -0.451466 -0.264949 -0.0820447 0.487542 0.477611 -0.365152 -0.117883 -0.170651 -0.297083 0.00579292 0.153113 0.352661 0.0467847 -0.203666 0.216985 0.48813 0.487644 -0.222913 -0.124887 -0.0852231 -0.0552268 -0.136392 0.000901975 0.369371 0.306763 0.261747 -0.257505 -0.373687 -0.0519749 -0.317931 -0.239285 -0.216545 0.307013 0.333571 -0.0573657 -0.201795 -0.360613 0.337346 -0.311701 -0.214657 -0.251231 -0.0517801 0.430772 0.200553 -0.14309 0.216399 0.120067 0.119743 0.191598 0.414023 0.223498 -0.0688186 -0.414208 0.0641016 -0.221927 -0.231676 -0.0668086 -0.250235 -0.396567 0.433267 0.278527 -0.22407 0.154134 0.314251 0.168389 0.167337 -0.305587 -0.274727 0.427064 -0.139324 -0.291909 0.207188 -0.233808 -0.268401 -0.479726 0.189978 0.245353 -0.0325494 -0.426785 0.238126 -0.286204 -0.0493211 -0.440001 0.20258 -0.181105 -0.460586 0.000422275 
0.266643 0.407568 0.416181 -0.325857 0.0320695 -0.0454409 -0.412435 -0.382009 0.343161 -0.12632 0.0195101 -0.372533 -0.37694 0.385684 0.241116 0.0894167 -0.37891 -0.402313 0.303611 0.417246 -0.303894 0.385911 -0.113499 -0.104671 0.325012 -0.183463 0.124041 0.00656878 -0.205835 0.120494 -0.294044 -0.279955 -0.498982 -0.0234094 0.348501 0.231517 -0.375771 0.242868 0.125758 -0.320642 -0.394777 -0.0427996 0.464387 0.330064 0.460892 -0.105155 -0.0774259 -0.247235 0.173947 0.119287 0.0876111 -0.457476 0.421393 -0.0949606 0.248852 -0.024561 -0.334784 -0.216823 -0.47197 0.130754 0.257845 0.390775 -0.024489 0.159351 0.078323 0.384197 0.269648 0.46331 0.0389298 -0.070268 -0.131397 0.1975 -0.32127 -0.336946 0.0560835 0.406767 0.167109 -0.41962 0.421836 0.00648825 0.420134 0.498679 0.239364 -0.0516457 0.114809 -0.130159 0.463266 -0.135659 -0.410131 0.0311974 0.429354 -0.0883854 0.232578 0.232454 -0.44214 -0.083538 0.393956 0.0975766 0.227075 -0.317779 
0.261056 -0.274174 0.217335 -0.239808 -0.245239 0.430284 -0.171232 0.474151 0.209764 0.235918 0.300714 0.303937 -0.000341775 -0.379883 -0.0803285 0.0159972 -0.161531 -0.236395 -0.338574 -0.0780812 0.235663 -0.142955 -0.332192 -0.0154319 0.205999 0.260131 -0.292283 -0.0834454 -0.274605 0.281907 0.044197 0.139698 -0.0510164 -0.118308 -0.341597 -0.0139991 -0.254144 -0.304671 -0.468738 0.0686506 -0.120959 0.354436 -0.0924447 -0.383655 -0.390858 -0.357628 -0.310511 0.321257 0.388284 0.332252 0.194999 -0.193173 -0.289786 0.0976857 0.322617 0.0613047 -0.130022 0.353582 -0.389452 -0.389231 0.477917 0.156232 -0.283625 0.149179 -0.134321 -0.210329 -0.187865 -0.0381036 -0.117136 -0.0993376 
