0.244227 -0.146308 -0.202905 0.29284 0.46214 -0.156467 0.39535 -0.306952 0.356368 0.287621 -0.362215 -0.0407023 -0.0358593 0.281199 0.236182 0.431423 0.490072 -0.104763 -0.381942 0.183607 -0.46845 0.472636 0.398151 -0.451729 -0.170323 0.179951 -0.213446 0.166728 0.21174 0.112702 -0.393096 0.44758 0.281282 0.0403132 -0.292979 -0.0701138 0.489243 0.319418 -0.190435 -0.171661 0.429633 0.265948 -0.0592234 -0.469643 0.397925 -0.139066 -0.40333 -0.0697461 0.254789 -0.44437 0.336556 0.0888434 -0.0132388 -0.106534 0.314889 -0.0916333 -0.17758 0.389882 0.0969817 -0.325845 0.132831 0.140808 -0.426213 -0.464549 0.0963568 -0.0446865 0.394612 0.188969 0.066954 -0.468071 -0.390085 0.243971 0.0957235 0.105252 -0.210013 0.218138 0.230429 0.270377 -0.450337 0.265548 -0.174176 -0.334579 -0.397289 -0.323058 0.229584 -0.208277 -0.363481 0.314366 0.465344 0.231224 0.0923042 0.463554 0.322076 -0.256712 -0.397822 -0.427971 0.248171 0.0935528 0.352774 0.25167 -0.408315 -0.473051 -0.366729 0.148901 -0.105853 0.233649 0.15341 0.42263 -0.203231 -0.0826516 -0.0201472 -0.231041 0.307148 -0.122727 -0.26113 0.387315 0.218052 -0.409901 0.442736 -0.169629 -0.436307 0.4829 0.226648 0.0136998 -0.0783219 0.238637 -0.0334055 -0.013589 -0.10404 -0.422902 0.407741 0.191911 0.0894807 -0.388253 0.117873 -0.0441988 -0.157347 -0.0785989 0.165846 -0.159909 0.166141 -0.233046 0.0293473 -0.111091 -0.295279 0.491479 -0.150205 0.318577 -0.330878 -0.3266 0.165638 -0.380968 -0.158375 0.392264 -0.371703 0.181316 0.348948 -0.0518894 0.0119614 0.176187 0.429939 0.239189 0.275687 -0.346403 0.442638 0.439638 0.457958 0.0740757 -0.453433 -0.422407 -0.323841 0.177773 -0.448624 -0.295333 0.0325191 0.101255 0.0999923 -0.343351 0.426633 0.0532893 -0.277933 -0.489491 0.0323376 0.343023 0.326244 -0.325815 -0.404765 -0.0363598 -0.0251362 0.0156976 -0.238953 0.359206 0.0295581 0.490397 0.468877 -0.207198 0.306617 0.408177 -0.159469 0.463331 0.384462 0.421728 -0.431982 0.0109863 -0.114132 0.345592 -0.365385 -0.407077 -0.211015 0.229968 -0.0464602 0.48808 0.336793 -0.279034 -0.22678 0.310308 -0.33858 -0.0677855 -0.42046 0.498373 -0.161509 0.0373974 0.482343 0.452451 0.405945 -0.311164 0.0465375 0.325722 0.429754 0.115681 -0.473873 -0.219467 0.100284 -0.0560503 -0.483047 0.25877 -0.492475 -0.371159 0.354196 -0.250625 0.105317 0.317785 0.245654 0.210605 -0.10191 -0.276963 -0.146194 0.246695 0.238138 0.213569 -0.173209 0.449695 -0.453258 0.417918 -0.21406 0.0832443 0.488628 0.296192 0.0786669 0.421607 0.0473138 -0.0715776 0.491816 0.13072 0.260303 -0.333677 0.189805 0.253511 -0.00810778 -0.250153 -0.488304 0.0271571 0.271245 0.487023 -0.472437 -0.277811 -0.45824 -0.175626 0.0029294 0.498979 0.121126 0.489853 -0.111417 0.0208211 -0.205843 0.220399 -0.30031 0.4839 -0.321124 0.368053 -0.0732669 -0.407854 -0.391306 -0.232451 -0.234177 -0.159697 -0.419809 0.173327 0.372973 0.127805 -0.453584 0.482953 0.495188 -0.410867 -0.392198 -0.395854 0.0213411 -0.303115 0.323181 0.248864 0.072577 0.434802 0.0991935 -0.256374 -0.435692 -0.432157 -0.453381 0.139983 -0.281667 0.401318 -0.154975 -0.46931 0.370158 -0.047822 -0.109157 0.234397 -0.0193373 0.392667 -0.0840656 0.477738 -0.256427 0.0467143 0.488849 0.114032 -0.117146 0.421939 0.0411156 -0.418756 0.00771012 -0.402607 0.384821 -0.24926 -0.242273 0.114975 -0.16174 -0.394571 0.218297 -0.144365 -0.291775 -0.110519 0.127693 0.0574477 0.274244 -0.208748 -0.165482 0.265908 0.479925 -0.425757 0.179202 -0.101117 
-0.16351 0.0519856 0.193125 0.265891 -0.306257 -0.15903 0.351428 -0.208605 -0.398327 -0.0801646 0.365024 -0.322391 -0.132835 -0.230416 0.0652051 -0.406924 -0.129351 -0.401353 -0.114908 -0.129811 -0.238212 0.458796 0.277772 -0.456672 -0.287782 0.247565 -0.434331 0.429132 -0.21741 -0.295702 -0.155124 0.195676 0.419447 0.233235 -0.274041 0.130965 0.190188 -0.0384157 -0.475198 0.0705028 0.402969 0.158422 0.17824 0.23393 0.241455 0.358199 -0.231895 -0.486734 0.0751171 0.145217 -0.490034 0.347063 0.146079 -0.172852 0.387355 -0.198243 -0.340997 0.49446 0.000933425 -0.181967 0.13262 0.42269 0.131789 0.461449 0.319246 0.0946456 -0.193812 0.200522 0.166284 -0.307713 0.205567 0.363276 0.23324 -0.080037 0.126338 0.350003 -0.0777014 -0.0201517 -0.153027 0.379502 0.343338 0.325798 -0.246952 -0.218979 -0.240384 0.260443 0.222465 -0.380872 0.120986 0.360046 -0.0223276 0.085581 0.373345 0.238693 0.38354 -0.483091 0.149144 0.475225 0.363346 -0.0820819 
-0.328836 0.228714 0.0984295 0.299478 -0.0633588 0.106261 0.277359 0.470145 -0.178897 -0.327724 -0.35562 -0.153884 0.113151 0.2863 0.36896 0.194675 0.17653 0.0404382 -0.301153 -0.170316 0.435872 0.031734 0.0643419 0.101443 -0.442174 -0.200202 -0.0317238 0.361771 0.12712 -0.00249802 -0.320716 -0.144203 -0.0765526 -0.476875 0.353643 0.319637 0.3733 -0.163478 -0.474857 -0.411228 -0.00599481 0.05177 -0.464486 0.206361 -0.19835 0.140934 -0.127559 0.156166 0.229324 -0.31171 -0.364359 -0.143184 -0.208606 -0.383206 -0.172476 0.237541 -0.195416 0.458907 -0.34023 -0.0532642 0.405203 0.217821 -0.460154 0.289877 -0.0618729 0.0362374 -0.0260748 0.479623 -0.413514 -0.144092 
